-1.766755048520372295e-01
1.081583529446726172e-01
-1.977072092932599667e-01
1.606741258304432152e-01
-1.330391471260909397e-01
1.641742993028008635e-01
2.114204892445175621e-01
2.376640237479337586e-02
-7.134270365979552067e-03
-2.670800670102450591e-01
1.561677727838784065e-02
2.067047211457979580e-02
-2.708297166603002570e-01
-2.751425885560304652e-01
-9.981667958417325681e-02
6.616646533078489323e-02
3.868256462395464057e-01
-1.107372390394796985e-01
7.225989245358480084e-02
2.033288070513668000e-01
3.856716853715094068e-02
1.935191895649162885e-01
-4.460367302078364210e-02
-1.266053980062157858e-01
-1.207237220238618763e-01
7.951272459769592738e-02
2.841375285464156075e-01
-4.600545640459272057e-01
-6.404636722165020501e-02
3.037039525879369206e-01
2.748924580901746517e-01
-8.974093527070235721e-02
-5.251146977684194306e-02
1.773395881256873696e-01
6.043693529462020042e-02
-3.217799777884675083e-01
-5.737104774863793083e-02
9.953640969940570626e-02
-1.605861605656655478e-01
1.297831991027073861e-01
