-1.659156403414453196e-01
1.264033379367961452e-01
-2.032866059763659139e-01
1.607406206742060528e-01
-1.521211168121235358e-01
1.655161202170535584e-01
2.193938324965009623e-01
1.458510249430670230e-02
-8.753733808839515851e-03
-2.728376983260559219e-01
3.872389412165453543e-02
6.656239585549256210e-02
-2.879219003954558986e-01
-2.877096809637705310e-01
-8.702154389622024366e-02
1.101966542983316838e-01
3.965960244885539110e-01
-1.331098450288233370e-01
1.240708542523753649e-01
1.460556378939052991e-01
-4.599106982047133224e-02
1.934483759996950825e-01
-6.349421468719778326e-03
-1.377360484118197448e-01
-1.065377833027823518e-01
7.849889573680822463e-02
2.919473370897870401e-01
-4.049064906999922386e-01
-8.847398968266163843e-02
3.279348042290498588e-01
3.208527943280509720e-01
-1.034130354102975324e-01
-5.335919702825923233e-02
2.025925981143222865e-01
1.227309454466491735e-02
-3.519061981128279726e-01
-5.815468654310990831e-02
7.864888840275199855e-02
-1.816630287758544682e-01
1.409289244307848077e-01
